After
First Hidden Layer
-4.172703196298317
-2.3418322509744254
-0.06107386736600788
-4.624062630524068
-1.463783960557784
-1.4087647241303523
-4.344722564069384
16.907564761643208
-10.58200666417629
-8.568183834702204
55.369336827896674
-19.100372674914343
-0.366901518031181
-12.749320044588435
10.693557291395956
1.4818744352272526
-12.394214354003578
4.559775992461848
-4.705626986981871
-17.566120085224608
22.89064897676951
-4.837811065441005
-1.7816184926674337
-1.5133109143255241
-5.7931246257330455
-1.9844954411633873
-0.6932926306019601
-3.50407782040427
-3.2347521109165225
0.593926074891651
-5.6748243675817935
-1.9772814410606843
-1.1132789273798454
18.16692973216454
-23.693213549455706
-35.379350186459604
-24.45292993990123
57.18526875217165
-31.420285055910217
-33.60570139829305
16.035888589507838
47.28486773823593
-5.429243057137592
28.9071461918177
-22.215263157022463
-4.816447794598699
-2.6684991450901983
-0.7127914391865106
-5.555525481944794
-4.115370962161022
0.7533733477001984
Output Layer
0.23585724957044574
-0.19153792510612294
-1.719038399799235
-8.429205976730998
1.8210465617154032
1.8173463283242988
1.9724541163946883
-0.11187540041152368
0.6113588301538078
0.5342555818010155
0.6832116155095211
5.757518799587138
-2.7009128366325625
10.66481081313366
-3.4051033187575293
0.7503947977579063
1.8276616036995608
-0.09805340035894404
0.19822118603828073
-1.3211158146558515
10.618564650565562
-1.411109963949465
0.44135731893402386
-3.7907074202460342
0.4613987935036521
0.6963257085416126
0.20199670161436958
0.8526933436522972
-11.68954131345811
-10.619825055643293
-13.013098900601047
-3.840681330813674
0.30749807879211216
1.280058674584839
-0.3502498407769256
-0.1367796142257942
1.3806050157159575
-10.621144291077266
1.102903613109675
-0.04842218335802961
3.797350798140852
-0.05843521477341029
-0.711962953699983
-0.054383526183424395
-0.5588309357189641
11.68688268368757
10.61573754605925
13.059425327719369
3.784888312923512
-0.49669512776589214
-0.7768445870306171
